digraph Tree {
node [shape=box] ;
0 [label="rm <= 6.941\nmse = 84.42\nsamples = 506\nvalue = 22.533"] ;
1 [label="lstat <= 14.4\nmse = 40.273\nsamples = 430\nvalue = 19.934"] ;
0 -> 1 [labeldistance=2.5, labelangle=45, headlabel="True"] ;
2 [label="lstat <= 4.91\nmse = 26.009\nsamples = 255\nvalue = 23.35"] ;
1 -> 2 ;
3 [label="mse = 47.187\nsamples = 20\nvalue = 31.565"] ;
2 -> 3 ;
4 [label="lstat <= 9.715\nmse = 17.974\nsamples = 235\nvalue = 22.651"] ;
2 -> 4 ;
5 [label="age <= 87.6\nmse = 22.287\nsamples = 122\nvalue = 24.393"] ;
4 -> 5 ;
6 [label="mse = 11.111\nsamples = 112\nvalue = 23.787"] ;
5 -> 6 ;
7 [label="mse = 97.42\nsamples = 10\nvalue = 31.17"] ;
5 -> 7 ;
8 [label="ptratio <= 17.85\nmse = 6.503\nsamples = 113\nvalue = 20.77"] ;
4 -> 8 ;
9 [label="mse = 8.556\nsamples = 33\nvalue = 21.864"] ;
8 -> 9 ;
10 [label="mse = 4.96\nsamples = 80\nvalue = 20.319"] ;
8 -> 10 ;
11 [label="crim <= 6.992\nmse = 19.276\nsamples = 175\nvalue = 14.956"] ;
1 -> 11 ;
12 [label="nox <= 0.531\nmse = 11.391\nsamples = 101\nvalue = 17.138"] ;
11 -> 12 ;
13 [label="mse = 9.016\nsamples = 24\nvalue = 20.021"] ;
12 -> 13 ;
14 [label="lstat <= 18.885\nmse = 8.733\nsamples = 77\nvalue = 16.239"] ;
12 -> 14 ;
15 [label="mse = 5.952\nsamples = 53\nvalue = 17.234"] ;
14 -> 15 ;
16 [label="mse = 7.862\nsamples = 24\nvalue = 14.042"] ;
14 -> 16 ;
17 [label="nox <= 0.605\nmse = 14.674\nsamples = 74\nvalue = 11.978"] ;
11 -> 17 ;
18 [label="mse = 18.606\nsamples = 12\nvalue = 16.633"] ;
17 -> 18 ;
19 [label="lstat <= 19.645\nmse = 8.908\nsamples = 62\nvalue = 11.077"] ;
17 -> 19 ;
20 [label="mse = 4.18\nsamples = 18\nvalue = 13.922"] ;
19 -> 20 ;
21 [label="mse = 6.177\nsamples = 44\nvalue = 9.914"] ;
19 -> 21 ;
22 [label="rm <= 7.437\nmse = 79.729\nsamples = 76\nvalue = 37.238"] ;
0 -> 22 [labeldistance=2.5, labelangle=-45, headlabel="False"] ;
23 [label="lstat <= 5.495\nmse = 41.296\nsamples = 46\nvalue = 32.113"] ;
22 -> 23 ;
24 [label="mse = 17.249\nsamples = 23\nvalue = 35.248"] ;
23 -> 24 ;
25 [label="mse = 45.69\nsamples = 23\nvalue = 28.978"] ;
23 -> 25 ;
26 [label="ptratio <= 15.4\nmse = 36.628\nsamples = 30\nvalue = 45.097"] ;
22 -> 26 ;
27 [label="mse = 7.774\nsamples = 16\nvalue = 47.975"] ;
26 -> 27 ;
28 [label="mse = 49.315\nsamples = 14\nvalue = 41.807"] ;
26 -> 28 ;
}